15 10
silent -0.0053622723 0.0023643137 0.051033497 0.09009273 -0.0930295 -0.07116809 0.064588726 0.08972988 -0.05015428 -0.037633717
cartoons 0.07380505 -0.015334713 -0.04536613 0.065540515 -0.048601605 -0.018160176 0.028765798 0.009918737 -0.08285215 -0.09448818
jerry 0.07311766 0.05070262 0.06757693 0.0076286555 0.063508905 -0.03405366 -0.009464013 0.057685733 -0.075216375 -0.039361037
tom -0.07517779 -0.009350709 0.09542852 -0.0732136 -0.023339111 -0.019355837 0.08087358 -0.05931765 0.0004325728 -0.047578104
effects -0.0960355 0.05007293 -0.08759586 -0.043918252 -0.00035099982 -0.0029618144 -0.0766124 0.09614743 0.04982058 0.09233143
sound -0.08157917 0.044957984 -0.04137076 0.008245361 0.084986195 -0.044621766 0.045175005 -0.0678696 -0.035484888 0.09398508
music -0.015776526 0.0032137155 -0.041406296 -0.076826885 -0.015080082 0.024697948 -0.00888027 0.055336617 -0.02742977 0.02260065
still 0.05455794 0.083459534 -0.014537406 -0.09208143 0.043705523 0.00571785 0.07441908 -0.0081328275 -0.02638414 -0.08753009
words -0.008565569 0.02826563 0.054014288 0.07052656 -0.057031214 0.018588196 0.060888637 -0.04798051 -0.031072605 0.067976296
contain 0.016314756 0.0018991709 0.034736373 0.002177775 0.09618826 0.050606035 -0.0891739 -0.0704156 0.009014559 0.06392534
series -0.08619688 0.03665738 0.051898837 0.057419382 0.07466918 -0.06167675 0.011056137 0.060472824 -0.028400505 -0.061735224
cartoon -0.004106206 -0.083770595 -0.0560544 0.071114235 0.033557888 0.07232673 0.068068385 0.0753804 -0.03792827 -0.005623504
characters 0.023483764 -0.045190323 0.08388732 -0.098581634 0.06764641 0.029144168 -0.049328316 0.043981872 -0.017395746 0.06711384
mouse 0.0996485 -0.04362444 -0.0059933783 -0.056956373 0.038508225 0.027866269 0.06891076 0.061010957 0.09538497 0.09273417
cat 0.078980684 -0.069895044 -0.09155865 -0.003557527 -0.030998409 0.07894317 0.05938574 -0.015456629 0.015109634 0.017900407
